digraph Tree {
node [shape=box, style="filled, rounded", color="black", fontname=helvetica] ;
edge [fontname=helvetica] ;
0 [label=<X<SUB>0</SUB> &le; 0.032<br/>entropy = 0.793<br/>samples = 1000<br/>value = [239, 761]<br/>class = a>, fillcolor="#77bced"] ;
1 [label=<entropy = 0.0<br/>samples = 524<br/>value = [0, 524]<br/>class = a>, fillcolor="#399de5"] ;
0 -> 1 [labeldistance=2.5, labelangle=45, headlabel="True"] ;
2 [label=<X<SUB>1</SUB> &le; -0.685<br/>entropy = 1.0<br/>samples = 476<br/>value = [239, 237]<br/>class = t>, fillcolor="#fffefd"] ;
0 -> 2 [labeldistance=2.5, labelangle=-45, headlabel="False"] ;
3 [label=<entropy = 0.0<br/>samples = 95<br/>value = [0, 95]<br/>class = a>, fillcolor="#399de5"] ;
2 -> 3 ;
4 [label=<X<SUB>1</SUB> &le; 0.67<br/>entropy = 0.953<br/>samples = 381<br/>value = [239, 142]<br/>class = t>, fillcolor="#f4ccaf"] ;
2 -> 4 ;
5 [label=<X<SUB>1</SUB> &le; -0.496<br/>entropy = 0.718<br/>samples = 298<br/>value = [239, 59]<br/>class = t>, fillcolor="#eba06a"] ;
4 -> 5 ;
6 [label=<X<SUB>0</SUB> &le; 0.576<br/>entropy = 0.931<br/>samples = 49<br/>value = [17, 32]<br/>class = a>, fillcolor="#a2d1f3"] ;
5 -> 6 ;
7 [label=<X<SUB>1</SUB> &le; -0.535<br/>entropy = 0.216<br/>samples = 29<br/>value = [1, 28]<br/>class = a>, fillcolor="#40a0e6"] ;
6 -> 7 ;
8 [label=<entropy = 0.0<br/>samples = 24<br/>value = [0, 24]<br/>class = a>, fillcolor="#399de5"] ;
7 -> 8 ;
9 [label=<X<SUB>1</SUB> &le; -0.524<br/>entropy = 0.722<br/>samples = 5<br/>value = [1, 4]<br/>class = a>, fillcolor="#6ab6ec"] ;
7 -> 9 ;
10 [label=<entropy = 0.0<br/>samples = 1<br/>value = [1, 0]<br/>class = t>, fillcolor="#e58139"] ;
9 -> 10 ;
11 [label=<entropy = 0.0<br/>samples = 4<br/>value = [0, 4]<br/>class = a>, fillcolor="#399de5"] ;
9 -> 11 ;
12 [label=<X<SUB>1</SUB> &le; -0.61<br/>entropy = 0.722<br/>samples = 20<br/>value = [16, 4]<br/>class = t>, fillcolor="#eca06a"] ;
6 -> 12 ;
13 [label=<X<SUB>0</SUB> &le; 0.811<br/>entropy = 0.971<br/>samples = 10<br/>value = [6, 4]<br/>class = t>, fillcolor="#f6d5bd"] ;
12 -> 13 ;
14 [label=<X<SUB>0</SUB> &le; 0.767<br/>entropy = 0.722<br/>samples = 5<br/>value = [1, 4]<br/>class = a>, fillcolor="#6ab6ec"] ;
13 -> 14 ;
15 [label=<entropy = 0.0<br/>samples = 3<br/>value = [0, 3]<br/>class = a>, fillcolor="#399de5"] ;
14 -> 15 ;
16 [label=<X<SUB>0</SUB> &le; 0.789<br/>entropy = 1.0<br/>samples = 2<br/>value = [1, 1]<br/>class = t>, fillcolor="#ffffff"] ;
14 -> 16 ;
17 [label=<entropy = 0.0<br/>samples = 1<br/>value = [1, 0]<br/>class = t>, fillcolor="#e58139"] ;
16 -> 17 ;
18 [label=<entropy = 0.0<br/>samples = 1<br/>value = [0, 1]<br/>class = a>, fillcolor="#399de5"] ;
16 -> 18 ;
19 [label=<entropy = 0.0<br/>samples = 5<br/>value = [5, 0]<br/>class = t>, fillcolor="#e58139"] ;
13 -> 19 ;
20 [label=<entropy = 0.0<br/>samples = 10<br/>value = [10, 0]<br/>class = t>, fillcolor="#e58139"] ;
12 -> 20 ;
21 [label=<X<SUB>1</SUB> &le; 0.462<br/>entropy = 0.495<br/>samples = 249<br/>value = [222, 27]<br/>class = t>, fillcolor="#e89051"] ;
5 -> 21 ;
22 [label=<X<SUB>0</SUB> &le; 0.156<br/>entropy = 0.199<br/>samples = 194<br/>value = [188, 6]<br/>class = t>, fillcolor="#e6853f"] ;
21 -> 22 ;
23 [label=<X<SUB>1</SUB> &le; -0.272<br/>entropy = 0.937<br/>samples = 17<br/>value = [11, 6]<br/>class = t>, fillcolor="#f3c6a5"] ;
22 -> 23 ;
24 [label=<entropy = 0.0<br/>samples = 4<br/>value = [0, 4]<br/>class = a>, fillcolor="#399de5"] ;
23 -> 24 ;
25 [label=<X<SUB>1</SUB> &le; 0.357<br/>entropy = 0.619<br/>samples = 13<br/>value = [11, 2]<br/>class = t>, fillcolor="#ea985d"] ;
23 -> 25 ;
26 [label=<entropy = 0.0<br/>samples = 11<br/>value = [11, 0]<br/>class = t>, fillcolor="#e58139"] ;
25 -> 26 ;
27 [label=<entropy = 0.0<br/>samples = 2<br/>value = [0, 2]<br/>class = a>, fillcolor="#399de5"] ;
25 -> 27 ;
28 [label=<entropy = 0.0<br/>samples = 177<br/>value = [177, 0]<br/>class = t>, fillcolor="#e58139"] ;
22 -> 28 ;
29 [label=<X<SUB>0</SUB> &le; 0.348<br/>entropy = 0.959<br/>samples = 55<br/>value = [34, 21]<br/>class = t>, fillcolor="#f5cfb3"] ;
21 -> 29 ;
30 [label=<entropy = 0.0<br/>samples = 14<br/>value = [0, 14]<br/>class = a>, fillcolor="#399de5"] ;
29 -> 30 ;
31 [label=<X<SUB>1</SUB> &le; 0.565<br/>entropy = 0.659<br/>samples = 41<br/>value = [34, 7]<br/>class = t>, fillcolor="#ea9b62"] ;
29 -> 31 ;
32 [label=<entropy = 0.0<br/>samples = 23<br/>value = [23, 0]<br/>class = t>, fillcolor="#e58139"] ;
31 -> 32 ;
33 [label=<X<SUB>0</SUB> &le; 0.754<br/>entropy = 0.964<br/>samples = 18<br/>value = [11, 7]<br/>class = t>, fillcolor="#f6d1b7"] ;
31 -> 33 ;
34 [label=<X<SUB>0</SUB> &le; 0.574<br/>entropy = 0.881<br/>samples = 10<br/>value = [3, 7]<br/>class = a>, fillcolor="#8ec7f0"] ;
33 -> 34 ;
35 [label=<entropy = 0.0<br/>samples = 4<br/>value = [0, 4]<br/>class = a>, fillcolor="#399de5"] ;
34 -> 35 ;
36 [label=<X<SUB>1</SUB> &le; 0.601<br/>entropy = 1.0<br/>samples = 6<br/>value = [3, 3]<br/>class = t>, fillcolor="#ffffff"] ;
34 -> 36 ;
37 [label=<entropy = 0.0<br/>samples = 2<br/>value = [2, 0]<br/>class = t>, fillcolor="#e58139"] ;
36 -> 37 ;
38 [label=<X<SUB>1</SUB> &le; 0.628<br/>entropy = 0.811<br/>samples = 4<br/>value = [1, 3]<br/>class = a>, fillcolor="#7bbeee"] ;
36 -> 38 ;
39 [label=<X<SUB>1</SUB> &le; 0.618<br/>entropy = 1.0<br/>samples = 2<br/>value = [1, 1]<br/>class = t>, fillcolor="#ffffff"] ;
38 -> 39 ;
40 [label=<entropy = 0.0<br/>samples = 1<br/>value = [0, 1]<br/>class = a>, fillcolor="#399de5"] ;
39 -> 40 ;
41 [label=<entropy = 0.0<br/>samples = 1<br/>value = [1, 0]<br/>class = t>, fillcolor="#e58139"] ;
39 -> 41 ;
42 [label=<entropy = 0.0<br/>samples = 2<br/>value = [0, 2]<br/>class = a>, fillcolor="#399de5"] ;
38 -> 42 ;
43 [label=<entropy = 0.0<br/>samples = 8<br/>value = [8, 0]<br/>class = t>, fillcolor="#e58139"] ;
33 -> 43 ;
44 [label=<entropy = 0.0<br/>samples = 83<br/>value = [0, 83]<br/>class = a>, fillcolor="#399de5"] ;
4 -> 44 ;
}